96 30
김밥 -0.03215427 2.0968913e-05 -0.022883149 -0.003107496 0.010136672 -0.016766556 -0.009253347 0.002251959 -0.021207403 0.024288595 0.014594742 -0.028528448 -0.0071632387 0.010548432 -0.027758647 -0.023563044 -0.028179137 -0.018328639 0.029520325 0.023590164 0.009619045 -0.02851523 0.01914411 0.015444724 0.00039658943 -0.02947646 -0.006279099 0.000636216 -0.025859809 0.008233865
라면 0.01243 -0.018882036 0.032349203 -0.011861023 0.031831358 0.0027824203 -0.021128189 -0.00659039 -0.024590183 -0.009931743 0.0034723242 0.031608958 0.03118616 -0.021986257 0.011583837 0.0075852354 -0.008297841 -0.030763907 0.0034237544 -0.027219022 0.021067297 -0.019333601 0.018451463 0.03277908 -0.0005333344 0.015094976 -0.0060313344 0.02453587 0.013133657 -0.030034415
매콤오징어김밥 -0.007995013 0.0120958965 -0.00033189455 -0.004004236 -0.0035181283 -0.005572005 0.0020165085 0.01388365 -0.014175971 -0.012778739 -0.00017605623 0.0008978526 -0.0005626877 -0.01595169 0.0143780075 -0.007239731 0.007011799 0.0022217433 0.019898923 -0.022807935 -0.022719033 -0.014920859 0.031452764 -0.0053062756 -0.031430807 -0.0018168052 -0.014829743 0.020000262 -0.03194562 0.009530004
참치마요김밥 -0.030842774 0.004166003 0.019997327 0.024657825 -0.025404878 -0.020176744 -0.022794804 -0.026394466 -0.0316636 -0.0070849895 -0.0027864417 -0.024187338 0.022623455 0.0037320654 0.019429557 0.004909555 0.0026312193 -0.024560431 -0.0072555263 0.014403597 -0.016951049 0.0037692983 0.009611214 -0.005121203 0.03310765 0.027832115 0.0080522215 0.023727484 0.019638125 -0.018602056
불고기김밥 -0.017187476 -0.022227792 -0.025922783 0.027702427 -0.006607807 -0.022849878 -0.013847963 0.017147088 -0.009563788 -0.012498868 0.0054047504 -0.009254312 -0.005281202 0.0035816391 -0.009926482 0.028397609 0.013036449 -0.03319621 0.020865332 -0.022514181 0.002564776 0.014680783 -0.01701125 -0.0070355656 0.02698493 -0.014145974 -0.025454203 0.030859709 -0.00718499 -0.015731443
연어김밥 0.028569333 0.014277796 0.014416123 0.030948376 -0.028176935 0.017517734 0.006797838 0.013960933 0.005659668 0.014880447 0.014954301 0.020348405 -0.010673658 -0.015252427 -0.0014217218 0.00844578 -0.010877224 0.020192392 0.013847101 0.025881974 0.008564242 0.02705561 -0.004624033 0.026926426 0.012390053 -0.026824415 -0.013112049 -0.008239595 0.016310148 -0.0029071968
새우김밥 -0.009436361 0.026112357 0.031076336 -0.0053830943 -0.017197497 -0.01567253 -0.016153503 -0.03200942 0.0045734006 -0.014083052 0.008422363 0.018714944 -0.01355302 -0.031988606 0.005155659 -0.022333741 0.008317248 -0.012602107 0.023594737 0.0021340689 0.011869797 -0.009130446 -0.005701824 0.025509309 0.0046922606 -0.019501496 -0.02611499 0.0041089575 0.021515436 0.018521165
새우튀김김밥 -0.029923499 0.028640548 0.013489926 0.024898684 0.032487784 -0.0242986 -0.030133208 0.019453336 0.031304043 0.0116897505 0.023629325 -0.0052264333 0.026491662 -0.031628862 -0.026764996 -0.02213457 -0.0133448485 0.01663072 -0.012711863 -0.027733017 0.028039256 -0.012490006 0.028695654 -0.016319172 0.013061981 0.016406722 0.007975364 -0.009396013 0.009497082 -0.027520787
오징어김밥 -0.0092184665 -0.008637194 0.024163354 -0.0115446765 -0.021999009 0.01446809 -0.0015816172 -0.011991855 0.022941573 0.012907708 -0.013000671 0.0025729616 0.030478342 0.025848854 0.02120624 0.015557675 0.007948299 -0.006138754 -0.021237643 -0.001006035 -0.0052179615 -0.0019076188 -0.020876236 0.024780158 -0.021971643 -0.024130924 -0.009190488 -0.005051335 -0.025452392 0.0023274699
김치김밥 -0.017753704 -0.004251814 -0.02455037 0.006535228 0.010910662 -7.712841e-05 -0.018161194 -0.0057536205 0.02361639 0.012454196 -0.029603498 -0.0113785025 0.007847007 0.0071267327 -0.031546693 0.015237221 -0.02885666 -0.024623562 0.011610373 -0.011569861 0.01188157 0.029646968 -0.011914408 0.031068083 0.0057034614 0.032825913 0.01901681 -0.030498277 -0.0110924365 0.021767251
불고기쌈밥 -0.022577822 -0.0015588959 -0.02922576 0.009298126 0.005328651 -0.007732308 0.016679304 0.032495957 0.028180894 -0.0062674163 0.0068605067 -0.013345631 -0.027471352 0.020926518 -0.006497272 -0.0022206823 -0.0059044403 -0.015118885 0.013539032 -0.014233935 -0.031928487 0.029810386 0.013883563 0.03078245 0.022145009 0.009749123 0.03268007 -0.014748803 -0.022677703 0.014091269
치즈돈까스김밥 0.01867593 0.029018385 0.023087008 0.026796293 -0.03274336 0.014329418 -0.016766923 0.011707953 0.02018896 0.014640438 0.025041198 0.004992386 -0.004216472 0.019228002 -0.018798558 0.00012863874 0.031521957 -0.018270833 0.012714263 -0.027043402 0.032567643 0.027217047 0.004269906 0.01699193 0.0046937624 -0.021517206 -0.00476017 0.021497218 -0.01539102 -0.013310218
치즈볶음밥 -0.02794304 -0.004373475 0.00606879 0.02472376 -0.0065447567 -0.007750972 0.031623848 0.00026568174 -0.008015072 0.028682824 0.008956679 -0.017813241 0.021960353 0.015033845 -0.023514891 -0.0010772466 0.0027816216 0.019157859 -0.005725515 -0.0093551 0.0058281026 0.002823905 0.003976091 -0.00878094 -0.019952616 0.024409946 0.025291253 0.027654525 -0.028662825 0.008788085
불고기볶음밥 -0.011866542 0.032068014 0.009679226 0.015470377 0.00795205 0.02202826 -0.0191443 0.026314707 -0.008036407 -0.015206286 -0.0068699676 0.032445192 -0.022855302 -0.0073057334 0.023336666 -0.00018583139 -0.020983223 -0.021311752 0.029801317 0.02143192 0.015911976 -0.010873493 -0.030892067 0.012622961 0.023868501 -0.018776298 -0.02621671 -0.009909133 -0.01643966 -0.007717037
새우볶음밥 -0.0064807218 -0.017558403 0.031490378 -0.030995775 0.015013158 0.018013926 -0.0046975412 0.030023642 0.0329512 -0.018250143 -0.02007 -0.02248991 -0.026316274 -0.0101597225 -0.018646756 -0.0278156 0.0026096741 0.009982188 0.021382479 -0.008763166 -0.014844922 0.0041652364 0.0013048728 0.027056662 0.0006093343 0.024105286 -0.027548384 0.028111788 -0.0062963646 0.029003847
새우날치알볶음밥 -0.025389457 0.0059879543 0.0035216212 0.00015335083 -0.017010843 -0.030825658 -0.024214057 -0.026503913 0.0063790916 0.0015948892 -0.006043792 0.023733886 -0.008252307 -0.004491031 -0.029668545 -0.03308471 0.029831326 -0.019179793 -0.021243326 0.017331358 0.022233311 -0.022772137 0.0031992 -0.020028245 0.0054911454 -0.014297596 -0.011469324 0.0072855554 0.028871926 0.022427034
소고기볶음밥 -0.032256857 -0.018740349 0.026267774 0.0066311914 -0.01418684 0.0019960403 0.031736538 -0.003675723 -0.03141546 0.005361366 0.020774515 0.020941233 0.0136388345 -0.01883413 -0.001235644 -0.00018439293 0.015239318 -0.026805298 -0.026727697 0.0008825024 -0.028694332 0.01940052 -0.0013927062 0.03323726 -0.017813258 -0.0016204636 0.02585591 -0.0135597745 -0.016719667 0.005300236
새우튀김볶음밥 0.008835645 -0.008549865 0.021491762 -0.025533175 0.011311869 0.0016332348 0.029107276 0.019942379 0.022717873 0.026075149 -0.031667065 0.031874076 -0.025902517 -0.00881836 -0.016354697 -0.016555656 -0.026745303 -0.025945282 -0.015177373 -0.004251206 -0.017009962 0.020468473 -0.031722065 -0.01769035 0.031457175 0.02330443 0.025586052 0.014115798 0.0016903082 -0.019937146
진한우거지탕 0.02006259 0.008783435 0.025664778 0.021312809 0.026475234 0.028858023 -0.03298585 -0.022519017 0.0044585825 0.021467678 0.024579385 0.018389937 0.02553875 -0.017085226 0.021948032 -0.013694576 -0.030184476 0.030472267 0.0044380147 -0.009198932 -0.008259475 -0.014068262 0.016041124 0.014667408 -0.008844542 -0.024472935 -0.011886171 -0.0011220495 0.02031964 -0.009457795
전복죽 -0.00040298302 0.0029324214 -0.023652164 0.006883339 -0.004774745 0.009340497 0.016140739 -0.004506731 -0.009267143 0.025795491 0.016818663 0.022378406 0.0150521435 0.028890518 0.024916565 -0.0036062917 0.029158795 0.015339061 0.018135445 -0.004620282 -0.0068043945 -0.014747818 -0.02838399 0.01012576 0.029610641 0.029732473 -0.006474515 0.020287191 0.012599079 -0.014319885
김치찌개 0.0068097473 -0.018126285 0.027362974 0.018109696 0.010614781 0.013675229 0.028857168 0.024240116 -0.002778244 -0.023575895 0.027934909 0.024111947 0.0057682395 -0.0044916393 -0.01963364 -0.015110302 0.028826555 -0.010450359 -0.021129398 0.03290026 0.025655488 0.03040214 0.0037850062 -0.027750265 0.028083388 -0.012320769 0.019140577 0.014638599 0.032299817 -0.030978326
돼지불고기 0.016414681 0.009043662 -0.0061599175 -0.009589811 0.020035772 -0.019055795 -0.010789009 -0.021626083 -0.014115441 -0.028603315 -0.014899298 -0.028370766 0.0046792584 -0.028727321 -0.03305552 -0.02733875 -0.022575554 0.022268618 0.012615188 0.0011872213 -0.009859939 -0.02476107 0.0017780622 0.0016663074 0.0006520629 0.0028419853 0.0026211024 -0.00022720099 -0.026690181 -0.019567577
제육김밥 -0.028928002 -0.0048232633 0.031598218 -0.025164958 -0.017860329 0.031055208 -0.02991242 0.012753026 0.0022181352 0.022202337 0.027709179 -0.009502618 -0.01330771 0.029659724 0.0069654863 0.020829804 -0.031485718 0.03196708 -0.004494361 -0.020173717 0.009975116 -0.0015220364 0.015688308 -0.0076100705 -0.013792809 0.007592996 0.027847946 -0.01665202 0.008895596 -0.026635181
햄아채볶음밥 8.885861e-05 0.022206314 0.004886742 -0.029888408 -0.026462015 0.021839675 -0.012618935 0.020849975 -0.022270108 0.02826554 -0.021721082 0.010960067 -0.0035232862 -0.022625092 -0.010958656 -0.0038713734 -0.018236466 -0.0040378254 -0.025211044 0.008822199 0.030233828 -0.007924167 -0.0032550334 0.011711871 0.028883625 -0.019739509 -0.022958593 -0.0097766165 0.030492323 0.002887559
육개장 -0.00900476 0.0014813343 -0.011791527 -0.0013977686 -0.0023620527 0.0027427354 0.027316058 -0.019122358 -0.00553176 0.018572025 0.027227068 -0.0148101095 0.029951446 0.027512217 -0.014784073 0.0010103504 0.014248303 -0.013087734 -0.018533219 -0.021707742 -0.002235794 -0.0009864052 0.01487695 -0.008246847 -0.00057536364 0.008206252 0.01622533 -0.00010269483 -0.021131365 -0.030869357
고등어김치찌개 -0.0052588424 0.0010712385 -0.013802099 -0.02560896 -0.005026694 0.008232649 -0.0029600898 0.01844554 -0.0091432575 0.0075335503 0.01818598 0.027819844 -0.004845802 -0.030693809 0.014568508 0.0019059499 0.02480636 -0.0027109424 -0.008794713 -0.029176695 -0.0028551896 0.009421877 0.018004764 0.023508854 -0.019010404 0.006196066 0.020296212 -0.015993504 -0.0103575345 0.022658765
꽁치김치찌개 0.0054382524 0.000633057 0.01157879 0.00072592497 0.032062754 0.016868679 -0.029724633 -0.023471868 0.003004853 0.021308446 -0.028732292 0.012219127 0.017299613 0.019139795 0.024889728 -0.020558918 0.003685379 0.020157607 -0.009466835 -0.020578409 -0.0013674101 -0.027896496 -0.018666709 0.023681795 0.011175131 0.024085565 0.022667492 0.025102472 -0.012630514 -0.0018726866
뚝배기불고기 0.007827922 -0.01506344 0.027962439 -0.032860544 0.022548802 0.009714723 -0.016442772 0.014660625 -0.0057985825 0.022371281 0.033216167 -0.014541479 -0.0019977926 -0.018985458 0.012836074 0.009288756 0.022970255 0.020336986 0.031794988 0.03091139 0.026326895 -0.023298347 -0.030519549 -0.0011858423 -0.010332803 0.026314389 0.019795246 -0.0051522097 0.005036545 0.0059668026
김치볶음밥 0.026058571 -0.031700622 -0.00068510376 0.011563988 -0.0031299074 0.02793924 0.030035945 0.021788355 -0.0023720702 0.025701348 -0.028447783 0.010690356 -0.01545999 -0.016963184 0.011965394 0.01790113 0.02589838 -0.019221688 0.024777869 0.022084987 -0.012366001 -0.029152138 0.01812489 0.021699186 -0.0026251674 -0.022366187 -0.02361975 -0.008323534 0.017144179 -0.012217458
카레덮밥 -0.031233532 0.012755799 0.016281597 -0.021428546 0.004028527 -0.0069162566 8.134444e-05 -0.03294503 0.008973348 -0.015833687 0.0036254884 -0.005254082 0.007322244 -0.026271919 -0.00905728 0.008877329 0.017822273 -0.007971716 -0.031700313 0.015019596 0.0003152132 0.010257733 -0.022708816 -0.0045848847 0.025561936 0.024488032 -0.012244324 0.008809006 -0.027723765 0.020684954
오므라이스 -0.015457741 -0.010547022 0.031037856 0.0029112855 0.02496901 -0.020246875 0.01720169 0.033076074 -0.028191304 -0.01711897 -0.023549458 -0.016208839 -0.012595212 -0.028453998 0.026518686 -0.01614646 0.02807871 0.017541902 -0.02183342 0.013192904 0.018233832 -0.02475512 -0.024685733 -0.008250769 -0.028752418 -0.0052719074 -0.0013447761 0.0109989485 0.004806268 -0.002938072
콩나물라면 -0.01864686 0.005767886 -0.0029912393 0.022645636 0.0132453 0.015098238 0.00478102 -0.008999518 -0.014556042 -0.003440249 0.0047900914 -0.008820029 -0.023579275 -0.02601769 -0.030405955 -0.019783897 -0.006158082 -0.014412904 -0.021535568 -0.012391075 0.014297196 -0.012463478 0.027927252 0.0051133116 -0.024141066 0.031445995 0.025437376 0.01831094 -0.022829484 0.01940893
떡라면 0.013363644 0.017284565 0.0141863385 0.006465848 -0.010567208 0.02784615 0.0320406 0.01264201 -0.00945665 2.3758412e-05 0.004062728 -0.028194416 -0.02741315 -0.00077005225 0.0041242917 -0.019144602 -0.015750913 -0.024486916 0.027762052 0.00040432613 -0.015031329 0.019005684 0.03060005 -0.0136662405 0.026548939 0.017918114 0.019597078 0.0017086347 0.027376946 -0.023396801
치즈라면 -0.027475592 0.030997848 -0.00065886974 -0.006557588 0.015345435 -0.013651053 0.009143714 0.023133222 0.020218085 -0.025035981 0.0312745 0.015572695 0.0132204015 -0.020811684 0.028199932 -0.007167216 0.029417293 -0.017873343 -0.027098063 0.02274853 0.005570642 -0.007328363 0.031712003 0.031646185 -0.032580156 0.008350762 0.020522308 0.012908189 0.0067426246 0.0014350057
만두라면 0.002245438 -0.012735454 -0.023800833 -0.0069629075 0.013079659 0.029395612 0.030863833 -0.019919788 -0.031342234 0.032547925 0.011432616 0.01722039 0.02094115 -0.009347542 0.024409013 0.009434239 0.009570015 -0.007934567 -0.010427499 -0.007900473 0.014254789 0.00025352638 -0.031947598 -0.03221848 -0.02049398 -0.00042856534 0.0066580535 0.031439893 0.018614503 -0.014302322
국물떡볶이 0.00092772243 0.016547862 0.02566103 -0.0038140775 0.014411402 -0.019381264 -0.0026806355 0.027000168 -0.007866884 -0.03221152 0.0192642 -0.013099408 -0.0040762424 0.033268392 -0.0075211683 -0.015856883 -0.017764624 0.023269633 -0.019029574 0.0070455433 -0.017518867 0.02040238 0.014524356 0.00868785 -0.0049702763 -0.009153545 0.029976455 0.017385917 -0.007208399 -0.0315677
국물라볶이 -0.024753507 -0.0035458049 -0.002649824 -0.00854303 0.032275736 -0.0015284022 0.019579204 -0.024825292 -0.008353579 -0.018499546 -0.023796717 0.004136769 -0.023922388 -0.0074820598 0.012397679 0.019443747 0.0039939443 0.007009105 -0.013701304 0.024084445 -0.021023473 0.015490719 -0.027399909 0.006788226 -0.016590174 -0.01415896 -0.010363281 0.018850695 0.019328002 -0.016582163
부산생생우동 0.0025777698 -0.02831926 0.026032686 0.03085764 -0.009141091 0.0026674112 0.0024888397 0.018259617 -0.02868693 0.0019481857 0.022898074 0.0074386476 0.0037489214 -0.031073852 0.028274557 -0.020880425 -0.009974579 0.011645957 -0.0025754252 0.0047043045 0.0059399726 -0.022762997 -0.03241604 0.030135281 0.020660182 -0.023043092 0.011344941 0.00068687997 0.015845818 -0.023733143
부산오뎅 0.01342318 0.014491447 0.03319123 -0.0149124665 -0.0046308795 -0.024391072 -0.0323261 -0.030267525 -0.0034091831 -0.021677634 0.016165761 -0.020546755 0.008397285 0.0024648032 -0.01130718 -0.0032640775 0.03326375 0.03048629 -0.014872765 0.030276755 -0.018805878 0.01976974 -0.010324061 0.011439173 0.010057421 0.023001535 -0.007912946 0.02925012 0.025298094 -0.031825487
고기만두 -0.026694031 -0.025459655 0.009744192 -0.009315741 -0.023098402 -0.027094213 0.027697265 0.0066349627 -0.03109339 -0.015975721 0.010455796 -0.015710687 0.017602809 -0.014111471 0.0088059865 -0.026818959 0.02069962 0.016062964 0.0026239753 0.010044825 -0.029091608 0.0071005384 -0.002911814 -0.031063627 -0.03142714 -0.0047023934 0.014774696 0.012346904 -0.021662312 -0.022910226
김치만두 -0.016664708 -0.0076228143 -0.024167625 -0.03201106 -0.00914543 -0.027876135 -0.020129586 -0.018903097 -0.007813792 -0.0056899907 -0.029856661 -0.0024506648 0.02717502 0.025634766 -0.024020385 -0.012222771 0.010395173 -0.03190241 0.0049214642 0.02174822 0.019154731 -0.029210206 -0.015057147 -0.02713387 0.00015318791 0.030878779 0.01991102 0.016891027 0.016870208 -0.010809723
호박죽 0.03184061 -0.024521414 -0.024234625 -0.0075512966 -0.002595202 -0.010720344 -0.001975286 0.024962744 -0.002325062 -0.0054164687 0.009147998 -0.02786367 0.026186014 0.02845368 -0.031946957 0.008154222 0.03301657 -0.025552679 -0.023223063 -0.025788391 0.027986411 -0.0022711197 0.030481363 -0.027194072 0.012476949 0.0087834755 0.0024757108 0.0077589196 -0.02489698 -0.031194579
만두국 0.007848589 0.02049485 0.026618961 0.019119648 -0.0025911212 0.027687216 -0.031121047 0.011353775 0.00088917813 0.012857481 0.024619278 -0.022417223 0.018614937 -0.031740747 -0.0026815296 -0.028962458 -0.016995577 0.030964088 -0.006194206 0.009714754 0.030237598 0.029793775 -0.027361449 -0.010041046 0.032955352 0.01701477 -0.0052936235 -0.028973404 0.009871721 -0.022252994
떡만두라면 0.027107572 -0.014857781 -0.0035611908 0.0033545494 -0.00063704647 0.003827258 0.020379536 -6.75718e-05 -0.010819884 -0.005035762 0.019657664 0.0050470075 -0.0024142067 0.031110823 -0.016404279 -0.0027946988 0.030584704 0.022498092 0.00500952 -0.029608537 0.0038291535 -0.007627519 0.031227458 0.004033093 0.004966879 0.008021367 -0.006120022 -0.016665448 0.00077476504 -0.0067139347
야채비빔밥 0.02200311 0.029800411 -0.0022491813 0.009923383 -0.02035885 0.005664416 -0.023087442 -0.028980087 -0.019667344 -0.029854918 0.024258649 -0.019240106 0.027587838 -0.02414515 0.0114055835 0.032249995 -0.025951494 -0.033150192 -0.0144304875 -0.008943768 -0.0009042978 -0.029438503 -0.02872519 0.009334036 -0.02735469 -0.030231122 -0.007801553 -0.028772691 -0.023522167 -0.028003836
떡만두국 -0.0010044297 -0.015214328 0.022090582 0.0050905347 -0.011138252 0.02036324 -0.020044284 -0.015520564 -0.02402503 -0.014455267 -0.0060311 0.021632142 -0.009234643 0.016396558 0.023014808 -0.024879018 0.015216168 0.020423261 -0.009848249 0.022083405 0.020419598 -0.021478284 -0.022548504 0.0084631955 -0.0054127295 -0.020217093 0.03166403 -0.017100489 -0.02184699 -0.00039961736
등심돈까스 0.030694684 -0.030938426 -0.023025708 -0.030340647 -0.018490367 0.024562987 0.030548258 -0.011084505 0.012410168 -0.012084011 0.02627157 0.019556252 6.9538754e-07 -0.012095583 -0.02408102 0.015895387 0.004843263 -0.008710619 0.026126023 -0.013498715 -0.030496622 -0.007518236 0.00041715702 -0.02213085 -0.01828872 -0.028332591 0.030766245 0.024746759 -0.0009841442 0.024558878
치즈돈까스 0.02650263 -0.0026119114 0.022040304 0.012558413 0.016922807 0.024176637 -0.015797965 -0.00728511 0.0029104115 0.014120686 0.011014437 0.016986093 0.015288285 -0.028128361 -0.010612798 -0.024122532 0.032271408 0.016688665 0.00056947075 0.013709927 -0.025520436 -0.02098217 0.010254646 0.021782128 0.013166249 0.020060074 -0.006620439 -0.011150432 0.0006905675 -0.010647869
고구마돈까스 -0.018389681 -0.025961868 0.021785144 -0.0036344568 -0.0063029327 -0.026015917 0.031125244 0.0028938055 0.0058987895 0.008305553 -0.024619976 0.005462742 0.009921877 -0.028556764 0.01651934 0.008111361 0.024993042 0.016814327 -0.010105721 -0.023876457 0.023654044 0.006338449 0.017330786 0.021270363 0.0063742637 -0.020425372 -2.0988782e-05 0.027560992 -0.020328494 0.031460937
돌솥비빔밥 0.032072738 -0.024548912 -0.00038440624 -0.008548196 -0.02121714 -0.004595518 -0.017502617 0.030199984 -0.019302564 0.012286917 -0.00079161726 0.014063923 0.0070471526 0.033319406 0.0020982702 -0.018214755 -0.0039323093 0.0069017727 -0.011243562 -0.026155889 -0.018664205 -0.022500224 0.021177758 0.013075189 0.02738512 0.021732228 -0.020426134 0.009053171 0.028240418 0.0053188563
수제왕돈까스 0.031401735 -0.01575179 -0.024206996 0.025615769 0.008392318 0.028754652 -0.014883721 -0.022974677 0.003283008 -0.0039099217 -0.03132355 -0.0053435764 0.010168663 0.021885939 0.022817472 0.010694262 -0.014810908 -0.006130556 -0.013134194 0.019246383 -0.021195699 0.0070100627 -0.004484113 -0.019375928 -0.02415404 0.01950854 -0.02786068 -0.002290833 0.009424754 0.0257967
쫄면 -0.02432636 0.011015245 0.03269499 -0.02325693 -0.01178286 0.017111711 0.017461283 0.0054137153 0.02657045 0.0027719617 0.0062377215 -0.0053508324 -0.027220925 0.010859346 0.006554548 -0.029114015 -0.0022500237 0.00025556883 -1.9864241e-05 0.02903378 -0.008362556 -0.019675525 0.024944456 -0.024199108 -0.029887063 -0.0059653125 -0.027891457 0.0013006926 0.0064857802 -0.008231612
참치볶음밥 -0.021493368 -0.0010705987 -0.0036616803 0.0116445385 0.027090045 0.019518571 0.028136628 -0.029893903 0.031474955 -0.007885854 0.028990174 0.007948725 0.011950803 -0.03193896 -0.031621512 0.029946404 -0.009655893 0.009388061 0.021398144 -0.0009997566 0.032406323 -0.0034457168 -0.032242913 -0.023516158 -0.003477188 -0.028916335 0.02473816 0.012064445 -0.029156486 0.028265743
참치김치볶음밥 0.029765463 0.019491231 0.023032844 -0.031903043 0.0016415596 -0.030735437 -0.012220057 0.00084389845 -0.00093468826 0.0048842747 0.010925146 0.007089758 0.017732823 0.025068318 -0.019618964 0.026524385 0.019971693 0.03261963 0.015412859 -0.011090918 -0.012488023 -0.0020970781 -0.0055173277 0.03290862 0.003744014 0.013357516 0.011395188 -0.029504342 0.02240206 0.027303437
매콤땡초김밥 -0.0055528046 0.00777818 -0.021597382 -0.020419184 0.027386816 -0.010151398 0.022466775 0.005177283 -0.006605212 0.010184427 -0.013403519 -0.0059514362 0.0046024323 0.016290605 -0.0046840785 0.0021884323 -0.026441503 0.03165052 -0.029208502 0.0235664 0.013017126 -0.023326898 -0.017650593 -0.026460823 -0.01710093 0.023568638 0.032135393 0.0071820416 0.0021346847 0.031748235
꼬마김밥 -0.016578555 -0.0042776824 0.010935457 -0.02138011 -0.03233863 -0.030867446 0.03006899 0.017905645 -0.015960757 -0.027765473 0.004313171 0.009593543 -0.004150947 0.004236237 -0.014404344 0.01597122 0.004917284 0.029592749 -0.033255044 -0.017565234 -0.030342806 -0.0011597276 -0.02619102 0.016770804 -0.02132285 -0.019842792 0.016903035 -0.02719923 0.0048506735 -0.024131803
갈비만두 0.03287474 0.028779197 0.0058965087 0.019295013 0.015320718 -0.019972611 0.032523155 -0.03227402 0.02683086 0.009187933 -0.0101837395 -0.0118728755 0.030239845 -0.018136362 0.027289573 -0.020029625 0.027971257 -0.0018516461 0.02647533 -0.010516572 0.019930717 0.029347816 0.00847946 0.004392497 0.016797308 0.026675073 0.028560046 0.028309243 0.023508422 0.026675498
콩국수 0.028665802 -0.000110304354 -0.0033457717 0.0055526374 1.0911624e-05 0.0022839229 -0.028669791 -0.031982437 -0.007715587 0.029760666 -0.012158624 -0.023260646 0.01626461 0.0035637259 0.0061700703 0.012176522 0.011735578 0.019087072 0.004114334 0.002814877 0.030150834 0.009274057 -0.015676184 0.021807289 0.017377706 0.009568556 -0.010459447 0.011122787 0.021214327 0.023603467
잔치국수 0.003137219 -0.028439224 0.0008592049 0.0012347341 0.013143273 -0.0315632 0.032359567 -0.023240924 0.0192048 -0.031432908 0.03216176 0.024416097 0.0042055207 -0.011350786 -0.0015021999 0.0014087439 -0.021364016 0.019150527 0.007904673 0.0125931185 -0.024183393 0.028420968 0.0016941786 -0.00067975523 -0.030238692 0.01349585 0.022544784 0.024516976 -0.02139175 -0.026186867
후레쉬쫄면 0.01022743 0.01937538 -0.02946457 0.030415826 0.02273161 0.028368143 -0.027420875 0.02058513 0.022096904 -0.0045254747 -0.020979552 0.0177556 -0.02286526 -0.017744513 0.011705633 0.026936574 0.028975645 -0.014684383 -0.030629234 0.032025646 0.020967694 -0.013221117 -0.028199097 -0.015727783 -0.013190758 -0.010911505 0.002730306 -0.0009905418 -0.01037459 -0.019986626
비빔국수 -0.01841238 -0.002009658 -0.027793268 -0.027467052 -0.0063918987 0.0037976226 -0.031688493 -0.012443113 0.002149268 0.022699885 0.0057833036 -0.002107942 -0.024937984 -0.02247365 -0.0023147622 0.02489194 0.0181429 -0.004942302 0.0039076963 -0.032019254 -0.004614985 -0.015420743 0.019364368 -0.007793375 -0.01588022 -0.031583715 -0.0040010493 -0.023992566 -0.0056173922 -0.013566077
야채죽 0.02398446 0.025494313 -0.0026821573 0.012199867 -0.017078586 0.0063689393 0.015127564 0.032955542 -0.010624965 0.009464446 -0.019121166 -0.0073685525 0.027083652 -0.0130155245 -0.003961933 -0.030949915 -0.031589255 0.029609224 -0.019009741 0.01684264 -0.023212023 -0.008195039 -0.026743121 0.02500176 0.02042472 0.017528232 0.02792619 -0.0023217758 -0.031042429 0.030385554
감바스오일파스타 -0.016428454 0.026159966 0.0184462 -0.0035969217 -0.025547385 -0.004866008 0.020845123 -0.023220276 0.0048069875 -0.026506193 0.02907116 -0.009519295 0.031457674 -0.019026915 -0.032392416 -0.028759679 -0.013582782 0.015698647 -0.0008064628 0.03074504 0.010364047 0.012492557 0.009987831 0.027162163 -0.007989049 0.02469113 -0.031789046 0.009736955 -0.0022722324 0.0015075246
봉골레파스타 0.022810034 -0.009473245 -0.007855932 -0.0003349225 -0.0016589721 -0.011916538 0.020814944 -0.021862226 0.026306665 -0.0003115336 0.008696135 0.010743832 -0.0009388447 0.005687674 -0.010468849 0.015854852 0.0008100351 -0.010935319 -0.029048583 -0.03332693 0.0010425926 -0.019156035 -0.0036988657 -0.014020312 -0.028796084 0.0035403213 0.019703634 -0.0073698997 -0.023902722 0.010511458
알리오올리오파스타 -0.0012822866 -0.018403808 -0.0036854306 -0.0021321813 -0.010610298 -0.03318359 0.02546198 0.012420027 -0.008430711 0.024357248 0.0015153011 0.023910506 -0.0051585436 0.024978893 -0.00014210542 -0.02025787 -0.015719501 0.03209475 0.0019368728 0.0034246682 0.028167626 -0.020961348 -0.0058795293 -0.027263066 -0.022249183 -0.028601622 0.013102035 0.009131153 0.018718043 0.008572527
아라비아따파스타 0.0070450506 0.019117184 -0.0070546945 0.010574325 0.02814587 0.0012935718 0.020981943 -0.02247856 0.021919405 0.015631588 0.016934494 -0.03306262 -0.0014314811 0.010687041 -0.019419964 -0.022312624 0.02121302 -0.022745837 -0.017275 0.027072795 -0.02340099 0.028484583 0.0021820744 0.01468569 -0.010041467 -0.01809245 -0.029825112 -0.0020415783 -0.017007459 -0.010253449
베이컨토마토파스타 0.027038181 -0.025493033 -0.02103093 -0.017545592 -0.022012468 -0.029468743 -0.0037001371 0.031486593 0.026788456 -0.017580323 -0.027125025 -0.007524649 -0.030889273 -0.016892465 -0.019826023 0.010083739 -0.025230141 0.0041686175 0.0076230047 0.01771105 -0.0067346534 -0.032572202 0.017405558 -0.019688312 0.016285853 0.0065825144 0.0293914 0.0051044584 -0.006091543 0.021629235
해물토마토파스타 -0.023566404 -0.027963543 0.01263057 -0.008589836 -0.013946132 -0.006416261 -0.032916974 0.0008684595 -0.0035221814 -0.009904723 0.008335483 0.015644649 0.021142023 -0.026379157 -0.016629983 -0.029291566 -0.029830119 -0.012433537 -0.0042456863 -0.027375443 -0.017921066 -0.0071725803 0.021142293 0.005228694 0.027715627 -0.027720693 -0.015252916 -0.002680278 0.029333929 0.0036878388
오븐토마토파스타 0.005133259 0.0043026167 0.009742069 -0.03131982 0.010848005 0.018215617 0.017621092 0.014799627 -0.02695456 -0.013532591 0.027829703 -0.001910305 -0.03145593 0.015945459 -0.020150458 0.022271644 0.017912595 -0.016818909 0.008564762 0.01805547 -0.011951017 -0.0050534448 0.030565238 0.030210698 -0.031309884 0.025224363 0.032960165 -0.009467232 0.00819782 -0.009344502
해물토마토뚝배기파스타 0.028818151 -0.00094427663 0.018787693 0.030709652 0.013700823 -0.023734633 -0.0064194323 0.003260084 0.0067802547 0.009847383 0.031497862 0.014670337 0.03304633 -0.028859012 -0.019181387 0.006621019 0.0121872425 -0.0033039332 -0.023038829 -0.010705543 -0.02842524 0.031369045 0.012414785 -0.026264727 0.010623229 0.013912785 -0.018796615 -0.019709306 0.003461222 0.029873483
빠네크림파스타 -0.007913784 -0.0108277835 -0.027188241 -0.00416137 0.0056364774 -0.013492147 -0.025471509 -0.011955452 -0.030157113 -0.0025280833 0.019610016 -0.009871153 0.010539194 0.016652394 0.028228093 0.018738052 0.031695154 -0.032155607 -0.02654225 -0.022527186 -0.024892362 -0.026545394 -0.025960565 -0.009808755 0.004653867 -0.00958263 -0.029387506 0.016619539 0.0030029693 0.015301338
목살필라프 -0.008086951 0.023655523 -0.02515293 0.02566028 -0.001584816 0.0036443113 0.031608872 0.015760534 -0.011909222 0.012452066 0.011730953 0.021122325 0.00023113092 -0.014745621 0.0043942374 -0.018047448 0.0047058584 0.016420603 0.017182827 0.03060546 -0.025042215 -0.018012146 0.021564575 0.0045182626 -0.022039337 0.0029479663 0.008923467 -0.008429452 -0.016533868 0.016682517
바질페스토리조또 0.030388864 -0.002461199 -0.012088398 -0.0012823025 0.0006480893 -0.011682987 0.009377471 0.019099018 0.0228967 -0.029678222 -0.007309095 -0.018272659 0.025070334 0.021672344 -0.014535741 0.00775611 -0.019845538 0.0007883191 0.031539198 -0.008699473 -0.017292392 -0.024657365 -0.009706473 -0.0028810462 0.011759539 0.032472964 -0.011297584 0.0063392282 0.03227003 0.0051052887
까르보나라리조또 0.017991634 -0.01615111 0.020508707 -0.025337605 0.011642885 -0.03107268 -0.008681035 -0.030243997 -0.0052942275 -0.017882505 -0.013146397 0.003845509 0.0093344925 -0.005087984 -0.027235052 -0.019726742 0.0027309854 -0.013154193 -0.031434827 -0.0025832495 0.022110896 0.01992948 -0.03305753 0.010395276 -0.01995767 -0.030606302 0.0005673766 -0.0012320677 -0.023239998 -0.020933526
해물스파이시필라프 -0.018096995 -0.022919953 0.008974603 0.03152216 -0.019386653 0.027550085 0.028440174 -0.02354213 -0.02961071 0.031563945 0.027914548 -0.015636304 -0.022420136 0.026140455 0.012544485 0.026985014 -0.025238486 -0.03175028 0.0052580195 -0.03268589 -0.016286282 -0.011533678 0.032069743 0.02874523 -0.009452025 0.01942291 0.027456982 -0.00754327 0.031761806 0.023867385
불고기피자 0.0068050027 -0.0128292125 -0.016939167 -0.010172176 0.026292881 -0.020634782 -0.009716741 0.030636739 0.011522186 0.02024204 -0.026776055 -0.0025050163 0.018408159 -0.015714895 0.02492831 0.031065306 -0.0013645609 -0.00687867 -0.001977861 -0.0192863 -0.027954273 -0.0050229114 -0.008523945 0.014608113 -0.022891724 0.018045653 -0.022483619 -0.026067631 0.02823904 0.029728714
고르곤졸라피자 -0.011604134 0.011638049 -0.019319117 -0.029166954 -0.018385239 0.022495763 0.021392532 0.031460244 0.023517616 0.02251651 0.0043338896 -0.032681007 0.015292541 -0.001794076 0.021106986 0.0059449156 -0.010432661 0.025866576 0.0051822187 0.00018403133 -0.015376512 -0.028178414 -0.02588944 0.0289017 -0.029749867 0.03011572 -0.030936725 -0.00092252094 -0.0063568233 -0.029770486
마르게리따피자 0.028766867 0.022592712 0.010064797 0.01611151 0.0003739675 0.0314156 0.023404293 -0.032845754 -0.014777402 -0.0043003717 0.010159075 -0.014413174 0.004830555 -0.026152996 0.009260246 0.01567564 0.016457709 -0.010585674 -0.028090136 -0.030735394 -0.0024096647 -0.024424883 -0.022716543 0.02040002 0.023907678 0.007058064 -0.026331337 -0.018996628 0.026839484 0.013069479
치킨텐더샐러드 -0.017468235 -0.024639683 0.002571849 0.011545849 0.006930645 0.0103360135 -0.018734999 -0.032964952 -0.02340279 0.0007676959 0.015395598 0.015087692 0.0062660417 0.01723558 -0.0003512025 0.013713888 -0.030410802 0.025669705 0.02049158 0.017080521 0.024022229 0.028132657 0.0024623196 -0.0056795357 0.0017287612 -0.031055935 0.028020715 -0.02126644 0.028092809 -0.01414785
프레시리코타샐러드 0.0021561424 -0.03054723 -0.031861894 -0.0261227 -0.025770187 0.0012519399 -0.024088208 -0.016500711 -0.017572355 -0.01429766 0.023374371 0.016097967 0.028942568 0.023645306 -0.018981354 0.024135986 -0.03098301 -0.008625229 -0.025857221 0.013975338 0.0060007693 0.023486972 0.009815661 -0.023269499 0.025708925 -0.01996309 0.029992362 0.009864016 -0.0133843105 -0.015629979
수제함박스테이크 -0.014722407 -0.020488191 0.03126247 -0.008831986 0.025908133 -0.032267787 0.007029303 -0.004112049 0.02514743 -0.030182004 0.024791876 -0.01701932 -0.020045916 -0.018830521 -0.011263899 -0.011370321 -0.010652216 -0.024974005 0.0023625891 -0.0019202392 -0.005613331 0.012523774 -0.025400631 -0.010738075 0.017184472 0.028479544 -0.0326998 0.023984456 0.017698292 -0.012932325
수제치즈함박스테이크 0.02858719 -0.030739974 0.024162268 0.017879447 0.004311983 -0.017332515 -0.013928843 -0.011189266 0.005360957 0.005289014 0.024627479 0.033258643 0.029557792 -0.0133548295 0.0321513 -0.0020984688 0.016218109 0.008496721 -0.002099367 0.012224825 -0.01773138 -0.019188924 -0.025348814 0.006354781 0.021752898 0.0029404282 0.004189829 0.010571988 0.027115552 -0.025666868
돈까스김치나베 0.007535839 -0.0249137 0.012366041 0.03170183 0.025067529 0.0214201 0.026715918 0.02183715 0.022855587 0.028940292 -0.016493468 0.030709846 0.016864005 -0.0071008326 0.028291496 0.016937809 0.032163184 0.009441336 0.032891795 0.0039900145 0.030430611 0.011956557 0.021882685 -0.01203777 0.02264303 0.024145246 -0.0071115373 -0.0061985133 0.012039153 -0.023454757
포크스테이크 -0.023969809 0.014109636 0.0072113154 0.024802383 -0.01629755 -0.015214487 -0.020327246 0.010997891 -0.01499821 0.028409617 -0.01429609 -0.0303514 -0.016054519 0.0213883 -0.021237748 -0.017538456 -0.024348037 0.020074205 0.01119198 0.009494634 -0.010461835 0.02010297 -0.020509152 -0.006600336 -0.019943606 -0.0033189335 -0.0067366203 0.028286485 0.0002600034 -0.02858442
포크찹스테이크 0.03245183 -0.03260128 -0.021664966 0.0092792865 0.021439958 -0.017891224 0.009174975 0.030404368 -0.022718072 -0.02033304 -0.01663214 -0.012254707 0.006165719 0.032275442 0.021459254 0.0013236403 0.008235896 0.02813497 0.030429931 0.018762508 0.019820876 -0.025402287 -0.012758907 -0.01893444 0.020605914 -0.007521498 -0.029264783 0.025397083 0.027998945 -0.01106745
야채김밥 0.0032883207 0.03267457 0.030984867 0.025693556 -0.020568423 0.03327995 0.019496623 0.030242221 -0.0066506625 0.011166453 0.022778522 -0.01297919 0.022142835 0.008542876 0.031045767 -0.010119347 -0.010364564 0.020717967 -0.030260818 -0.02417997 -0.021666754 -0.002496914 -0.007876738 0.022718398 0.03078864 -0.0030325293 0.0047094147 0.006734522 -0.0067326627 -0.026781138
소고기김밥 0.024803499 -0.014326338 0.015255062 0.030299012 0.010144074 0.010462633 0.01353943 -0.009004056 0.0127492305 0.0011254112 0.018755706 0.01832457 0.006097066 0.019164689 -0.029893594 0.021864526 0.030753307 -0.014023825 0.0053585013 -0.017446272 0.003527395 0.009233896 0.027202455 0.001813376 0.0085235275 0.0043257833 0.028008409 -0.019025676 -0.020872768 -0.012091728
참치와사비김밥 -0.0076684994 0.016803542 -0.027067857 -0.009445119 -0.027324757 0.0171657 -0.008560212 -0.030223692 0.01357243 0.030057745 -0.010125534 -0.0194618 0.010066295 -0.0014528275 -0.03326479 0.028059013 -0.024462959 -0.01643469 -0.008856936 -0.018174382 0.0057217004 0.032376047 0.015240908 0.02696201 -0.0015681942 0.002149745 -0.008894507 -0.029265204 0.011437679 0.0069779116
새우날치알김밥 -0.03140618 -0.016561456 -0.032446995 -0.019065972 0.013548474 0.028809536 0.0137055 0.007961547 0.02714926 -0.0037306985 -0.0046590446 -0.029156078 -0.00041930674 -0.008558575 0.0012869239 0.024265539 -0.023471534 -0.0131549155 -0.02221535 -0.011813716 -0.0110527715 0.0071237367 0.011093895 -0.016523957 -0.015154302 0.0037956475 0.018178277 0.017912166 -0.009895122 -0.014221752
어린이김밥 -0.018722156 -0.0018166105 0.00648791 0.0050844867 0.024508433 -0.009111241 -0.00021974643 -0.018425444 -0.003900218 -0.025706546 -0.0031977654 0.0043655834 -0.028649148 0.029161947 -0.030692887 -0.032082256 -0.028372081 0.02437756 0.01821856 0.03083154 0.008567258 0.0028217633 -0.008464801 0.031192226 0.009191696 0.013652162 -0.0039431173 0.0030150136 0.022081025 -0.0024216692
된장찌개 0.01113836 -0.0022400697 0.017494658 0.012133113 0.0086084325 -0.017699642 -0.015693668 0.014360074 -0.01969057 -0.00060068764 -0.002111721 0.011644145 -0.028140886 0.02939078 -0.0048291483 -0.017769758 0.013514896 -0.0064516347 -0.025884943 -0.014989329 -0.0012924235 -0.029821575 0.0019018769 0.008139312 -0.010750909 0.008568001 0.008269326 0.033294056 0.0047683516 0.006735126
돼지김치찌개 0.009265204 -0.0069262385 -0.028995387 0.026743913 -0.006582324 -0.03230771 -0.021840015 -0.013152869 0.013181158 0.01679527 0.020286703 -0.022567535 0.002296126 -0.009250939 -0.01736399 0.023270909 0.013173223 -0.010355024 -0.02758969 -0.017135954 -0.002165115 0.026039215 0.020147284 -0.028172188 -0.031878453 0.023779452 -0.0077585536 -0.012307695 0.019166108 -0.01948102
순두부찌개 0.016979849 -0.00080808403 -0.022917211 -0.0011054595 0.02119664 0.030979795 0.007403044 0.016833642 -0.016581746 -0.0026585062 -0.01772545 0.0039632083 -0.00597738 -0.012108783 -0.023381265 0.032181438 0.009919425 -0.0076040826 -0.013946966 0.025712626 -0.021606183 0.010405143 0.0026245236 0.027742933 0.022787256 -0.00969549 0.008450333 -0.005553575 -0.03151554 -0.008711536
참치김치찌개 0.004441746 0.021802854 0.033282008 0.030208182 -0.02671787 0.021637952 -0.019049125 -0.0032385825 0.0016094089 0.021939779 0.014900478 0.015345756 0.031610414 0.0012755473 -0.020129045 -0.021100335 0.021439297 -0.017475272 -0.009499375 0.01358428 -0.007634119 -0.020084044 -0.0077455165 0.004023063 0.0072778664 0.020279245 -0.017380003 0.01025987 0.024135586 0.007317046
제육덮밥 -0.025038607 -0.003100141 0.03179373 -0.024397222 -0.0077792285 -0.006459137 0.026924789 -0.019769652 0.00015054147 -0.01584578 -0.032011833 0.016690977 -0.029198619 -0.014639418 -0.000116999945 -0.0009872714 -0.025537467 0.03204914 0.01660686 0.030777145 -0.027193058 0.014985994 -0.013790254 0.0027484535 0.028328734 -0.014873922 0.015058335 -0.022623202 -0.011828295 0.03132836
치즈김밥 -0.0017874241 0.00078810455 0.017011166 0.03003091 -0.031009832 -0.023722697 0.021529576 0.02990996 -0.016718093 -0.012544572 0.024601681 -0.005111571 -0.015122044 0.021846838 -0.016200535 -0.0060533923 0.009588599 0.003306246 -0.027617384 -0.03149606 0.024372553 0.016900873 0.022525644 0.0025428853 0.021169635 -0.011351219 -0.0031546713 0.019228578 -0.025072126 -0.013120345